{"layers":[{"out_depth":3,"out_sx":1,"out_sy":1,"layer_type":"input"},{"out_depth":20,"out_sx":1,"out_sy":1,"layer_type":"fc","num_inputs":3,"l1_decay_mul":0,"l2_decay_mul":1,"filters":[{"sx":1,"sy":1,"depth":3,"w":{"0":-1.9344473773110382,"1":-0.013880643856384357,"2":1.1485346679694863}},{"sx":1,"sy":1,"depth":3,"w":{"0":-1.7167984840662853,"1":0.04078549799558904,"2":0.720907378845042}},{"sx":1,"sy":1,"depth":3,"w":{"0":-1.710524757542268,"1":-0.8085864817426328,"2":0.17812025641710455}},{"sx":1,"sy":1,"depth":3,"w":{"0":1.840490882086478,"1":0.2527280613668809,"2":0.031372295686027236}},{"sx":1,"sy":1,"depth":3,"w":{"0":-1.833619348095048,"1":-0.7529382485559416,"2":0.8506779960795942}},{"sx":1,"sy":1,"depth":3,"w":{"0":0.40977239895009093,"1":0.13402937389319855,"2":0.08586607591857377}},{"sx":1,"sy":1,"depth":3,"w":{"0":1.737431025747395,"1":0.18549680365998103,"2":-0.39862750613975895}},{"sx":1,"sy":1,"depth":3,"w":{"0":-1.270174125166771,"1":-0.04612630004650466,"2":-0.10161051873684086}},{"sx":1,"sy":1,"depth":3,"w":{"0":-0.7146145348381435,"1":-0.3350824834963993,"2":-0.11724385786312637}},{"sx":1,"sy":1,"depth":3,"w":{"0":-3.627896319931835,"1":0.27215351241893,"2":0.7291630404408239}},{"sx":1,"sy":1,"depth":3,"w":{"0":0.3966400303556489,"1":0.12000179534592842,"2":0.0907986066949565}},{"sx":1,"sy":1,"depth":3,"w":{"0":-0.7725797813866704,"1":-0.7484624925871173,"2":0.09044809231575213}},{"sx":1,"sy":1,"depth":3,"w":{"0":-3.201511582790864,"1":0.05017205374793928,"2":0.6686096808553196}},{"sx":1,"sy":1,"depth":3,"w":{"0":-2.793626577530001,"1":0.06058344981811118,"2":0.7666069550625294}},{"sx":1,"sy":1,"depth":3,"w":{"0":-0.4894048327324752,"1":0.36319423405960083,"2":-0.18179448915973245}},{"sx":1,"sy":1,"depth":3,"w":{"0":-1.3410929504213593,"1":0.0579924065349358,"2":0.3614548951306478}},{"sx":1,"sy":1,"depth":3,"w":{"0":0.7140832589760813,"1":-0.2431328451740529,"2":-0.9238536149702637}},{"sx":1,"sy":1,"depth":3,"w":{"0":0.47865419426838557,"1":-0.990224218406483,"2":-0.4660140833890634}},{"sx":1,"sy":1,"depth":3,"w":{"0":-0.24387500161542855,"1":0.46847085376964115,"2":-0.21455748404207495}},{"sx":1,"sy":1,"depth":3,"w":{"0":-0.6629160068352505,"1":-0.17467091781648053,"2":0.9397404802425996}}],"biases":{"sx":1,"sy":1,"depth":20,"w":{"0":0.5983299033549668,"1":0.3840021061126987,"2":0.949022026721697,"3":-0.9911448402348112,"4":2.87199665548719,"5":-0.2845635734082169,"6":-1.151823576535206,"7":0.7897345793776674,"8":-0.22722086869477953,"9":0.6910885883900741,"10":-0.2943064400098934,"11":1.5299032337731981,"12":0.6869290802579617,"13":0.5228837038924435,"14":-0.47921772796036266,"15":1.413786863875572,"16":1.097575868473199,"17":0.9083222752259101,"18":-0.38650322313209506,"19":0.6880603906443015}}},{"out_depth":20,"out_sx":1,"out_sy":1,"layer_type":"relu"},{"out_depth":20,"out_sx":1,"out_sy":1,"layer_type":"fc","num_inputs":20,"l1_decay_mul":0,"l2_decay_mul":1,"filters":[{"sx":1,"sy":1,"depth":20,"w":{"0":-0.21997967806626034,"1":-0.027659180890587533,"2":-0.25366341236998796,"3":-0.04391526428966755,"4":-0.008943799418425852,"5":-0.19536791038910195,"6":-0.42131327014639347,"7":-0.1816856725198188,"8":0.05047678471314648,"9":-0.6054835385694352,"10":0.12101504026370945,"11":-0.15330382212756358,"12":-0.0594682358408473,"13":0.056548953356772236,"14":0.14243323699233104,"15":-0.44333447625541467,"16":0.0294670492989661,"17":-0.007771109797511438,"18":0.1419109125267727,"19":-0.40756234520875934}},{"sx":1,"sy":1,"depth":20,"w":{"0":-0.8884248085864099,"1":-1.1204182785112482,"2":-0.45018009823480076,"3":1.543245257946616,"4":-0.7935217795592927,"5":-0.4237650528498003,"6":-0.10426617613469326,"7":-0.07671723827615541,"8":-1.0811189793912939,"9":0.08447962219187283,"10":-0.2942865368758302,"11":-0.85189612820157,"12":0.47113705811384865,"13":0.18495165970142327,"14":0.34641403526437353,"15":0.6968629620193257,"16":-1.0523065530391842,"17":-0.46606523053493043,"18":0.00767363075889063,"19":0.7832898706505185}},{"sx":1,"sy":1,"depth":20,"w":{"0":-0.3194302360041066,"1":-0.08957941901949755,"2":0.06067145088176758,"3":0.42095928353862616,"4":-0.6743583534573644,"5":0.1561718090046704,"6":-0.12541455227772386,"7":-0.5517357279178936,"8":0.3290978161730514,"9":-0.17211879753349554,"10":0.2440225468475654,"11":-0.41042416811733723,"12":-0.3933380045640628,"13":-0.344588869500528,"14":0.43265875530852876,"15":0.16001799009838327,"16":0.1379738721849778,"17":-0.3064054989342237,"18":0.20218014493853725,"19":0.09550861367264382}},{"sx":1,"sy":1,"depth":20,"w":{"0":0.7146252348155582,"1":1.3475214652767404,"2":0.02052369251083019,"3":2.633274105704454,"4":0.11610336083932686,"5":-0.2585017264811383,"6":-2.2876999076067963,"7":0.06448164684700658,"8":-1.3129029825538927,"9":0.7781103732853267,"10":-0.22136583939172866,"11":0.43454167263018684,"12":0.9049758167694985,"13":0.8330902411458233,"14":0.22003884676897031,"15":0.11362935571457236,"16":-0.5615535692681638,"17":0.8815865745576752,"18":0.08635001164277091,"19":1.190149519114816}},{"sx":1,"sy":1,"depth":20,"w":{"0":0.8455173357838488,"1":1.5147726585568342,"2":0.05608509992717524,"3":0.2858743713506228,"4":0.2835237555716676,"5":0.0025726271682195347,"6":-0.7405070807842432,"7":-0.5589429301499634,"8":-0.5626814337839112,"9":1.4911059615255924,"10":0.023129948376589618,"11":0.09568381266591248,"12":1.8314261001176553,"13":1.3524379047422619,"14":0.12523370044203905,"15":0.25320361592954277,"16":-0.9128758032188613,"17":1.4976595762930034,"18":-0.12524533187335096,"19":0.8928705937211783}},{"sx":1,"sy":1,"depth":20,"w":{"0":-0.345574653292125,"1":-0.5463744227956082,"2":-0.21226694237243957,"3":-0.3027075811288199,"4":-0.05096541260347338,"5":0.20093278775319195,"6":0.15519842731560402,"7":-0.019520694497532017,"8":-0.3510652576442948,"9":-0.25457585544481975,"10":-0.3074161588532767,"11":0.0068826939461624085,"12":0.10199112766177157,"13":-0.7242529779283339,"14":0.2607885031512155,"15":-0.07359417122985423,"16":-0.2542837556251612,"17":-0.05344832843900659,"18":-0.08555111431764625,"19":0.5566171184781583}},{"sx":1,"sy":1,"depth":20,"w":{"0":-0.27827038373239255,"1":-0.4168756442173978,"2":-0.6649755502858438,"3":0.21833839833802257,"4":-0.33555506929154516,"5":0.10785786796007159,"6":-0.4714736325363176,"7":-0.966813943329163,"8":-1.1813033408331304,"9":-1.4858931103680735,"10":-0.09984674971260989,"11":-1.490769155596207,"12":-0.5726515236512033,"13":-1.2060628747741045,"14":-0.6030671075947224,"15":-1.6133707666878991,"16":0.7767237299479218,"17":0.12965866079372432,"18":-0.0008810315576634389,"19":0.43401457286397654}},{"sx":1,"sy":1,"depth":20,"w":{"0":0.06149048407538754,"1":-0.49724331222291246,"2":-0.04767265133293924,"3":-0.25865134318159094,"4":-0.2962354110786212,"5":-0.0034442678585043557,"6":-0.2611301241235084,"7":-0.6572785373036203,"8":-0.07797781450128313,"9":-0.3511055888986698,"10":0.24569074988541506,"11":-0.10767771093647618,"12":-0.019299683716783828,"13":-0.3308065152133867,"14":0.020505948671674292,"15":0.21907578569219865,"16":-0.6823748219099091,"17":-0.2260051534344442,"18":-0.4423140652784486,"19":-0.19493225912986512}},{"sx":1,"sy":1,"depth":20,"w":{"0":-0.09988510111601055,"1":-1.0389199972261263,"2":-0.4021930732491362,"3":0.7164734897004998,"4":-0.043433913444847976,"5":-0.05841295880771221,"6":0.9721785679399416,"7":-1.550179047687046,"8":0.0520973344089655,"9":-1.9419702241480516,"10":-0.2544081394322775,"11":-0.028301689354276696,"12":-2.9532939106619085,"13":-3.3885577957590556,"14":0.18481563910276713,"15":0.3099119030421898,"16":0.2284129486191919,"17":-0.15174741654005833,"18":-0.10394820739331959,"19":-0.2698978421189003}},{"sx":1,"sy":1,"depth":20,"w":{"0":0.010419486830481783,"1":0.09595987634196021,"2":-0.49363082120019314,"3":0.07092886643724675,"4":-0.046478869077760714,"5":0.11430370084893762,"6":-0.31823390721462574,"7":-0.07901046294355112,"8":0.1161468097467182,"9":-0.40534615213277453,"10":-0.32801197285030603,"11":-0.1706645568284453,"12":-0.14178039885239105,"13":-0.5067462045348635,"14":0.12653724841931635,"15":0.019274924580286023,"16":-0.011736744333433528,"17":0.04411755683285618,"18":0.0018561721707594653,"19":-0.11166583214155536}},{"sx":1,"sy":1,"depth":20,"w":{"0":-0.02792629260062544,"1":-0.2762054603539487,"2":-0.6723958847254624,"3":0.04319603710178866,"4":-0.16746376756933973,"5":0.3341080362583312,"6":0.3084138791997982,"7":-0.22782787973172086,"8":-0.10009032903841018,"9":0.12570063141769025,"10":0.12162175458603337,"11":-0.0008330618789349565,"12":-0.43834028097197447,"13":0.004586156978214842,"14":-0.039431249676564806,"15":-0.030173197976551287,"16":0.016146430518059744,"17":-0.3391859869907305,"18":-0.5572622380568305,"19":-0.24292430437735402}},{"sx":1,"sy":1,"depth":20,"w":{"0":0.13345266234524147,"1":-0.5629441968234808,"2":-0.393330706882579,"3":-0.04450269900351157,"4":0.04757410206108921,"5":0.17867144057570192,"6":0.07353500896118632,"7":0.2504799030730956,"8":0.00473570978325317,"9":-0.26084614552936497,"10":0.18274304108186135,"11":0.015394026826092637,"12":-0.2642692925390839,"13":-0.3857496934041216,"14":-0.014390761771748962,"15":0.11426750312218782,"16":-0.27109139043175007,"17":0.03789966539242914,"18":-0.13104213274034746,"19":-0.3798997855837346}},{"sx":1,"sy":1,"depth":20,"w":{"0":0.25030125495215516,"1":-0.3114013340752848,"2":-0.15536393045861552,"3":-0.03390027134715779,"4":-0.36116290732797685,"5":-0.07369890120744516,"6":-0.15330689689679788,"7":-0.18376594226328258,"8":0.04181528739914088,"9":0.04067729318884559,"10":0.2399313340231178,"11":-0.2626029848605782,"12":0.08718628625313991,"13":0.02297508508542408,"14":-0.25028620531018725,"15":0.03686165487148444,"16":-0.278440848682169,"17":0.07282984365727703,"18":-0.16425321700333007,"19":-0.1275619080284085}},{"sx":1,"sy":1,"depth":20,"w":{"0":-0.0715341125221474,"1":-0.059317715382927655,"2":-0.06021350303962814,"3":-0.08990447637404421,"4":-0.00005982029590608706,"5":0.41109737402509106,"6":0.16761526324814915,"7":-0.04006237031356188,"8":-0.2852466505041772,"9":-0.20199022589976146,"10":0.24785791188607495,"11":-0.32789450723205865,"12":-0.39883129280125873,"13":-0.8968312665260653,"14":-0.20586531551169157,"15":-0.27806618574035824,"16":0.14298772364240672,"17":-0.07120444725833917,"18":-0.08183360393417834,"19":-0.05051112755264501}},{"sx":1,"sy":1,"depth":20,"w":{"0":-0.02801461395076692,"1":0.05776241402290874,"2":-0.4317620889166953,"3":-0.08938771237166566,"4":-0.3570045705385566,"5":-0.04165766075108396,"6":-0.12083331786931326,"7":0.12800440643086053,"8":-0.29635724052174783,"9":-0.14158541493727209,"10":-0.4112683571477379,"11":-0.02931438785682511,"12":-0.2955553662663429,"13":0.06514592100058368,"14":0.07087072659249402,"15":-0.08243676791767061,"16":0.1592162159299424,"17":-0.07770665641900439,"18":-0.5342559273449686,"19":-0.010731087851974285}},{"sx":1,"sy":1,"depth":20,"w":{"0":-1.0542699196571808,"1":-0.4751360865350921,"2":-0.6903583744799948,"3":0.16319209340192348,"4":-0.45541333567323644,"5":0.10778798242137316,"6":-0.03213523004817148,"7":-0.779246302348876,"8":0.0971055704225059,"9":-0.23230833486629,"10":-0.17193558111465643,"11":-0.5684817417249823,"12":-0.19938844906441558,"13":-0.03035886322624372,"14":0.1858094139998401,"15":-0.05391494835419078,"16":0.16738317875140662,"17":0.19255910303990156,"18":0.009814758443045449,"19":0.02444924430940056}},{"sx":1,"sy":1,"depth":20,"w":{"0":0.1815817714875827,"1":-0.2544713927707917,"2":0.15234560251184043,"3":0.07748810763443241,"4":-0.33824968812366885,"5":-0.12735011641476965,"6":-0.19742107647366317,"7":0.023342243869085347,"8":-0.0025546477886934774,"9":-0.2741158293910529,"10":-0.1343758106465219,"11":-0.3381951540709996,"12":-0.7278101506840695,"13":-0.8201529060009064,"14":0.3914082607802475,"15":0.3447145150534159,"16":0.14456694408004997,"17":-0.09780747851612837,"18":-0.0855623275959556,"19":0.22858984213739708}},{"sx":1,"sy":1,"depth":20,"w":{"0":-0.30638781381474867,"1":-0.4637233400059216,"2":-0.7803049252773143,"3":0.24957442083199374,"4":-0.07502537037918577,"5":-0.24317508059122236,"6":0.2552921076520381,"7":-0.32668506450174617,"8":-0.03691460870039227,"9":-0.6627489507539533,"10":-0.18101960306216539,"11":-0.2643917184872037,"12":-0.43086259755018436,"13":-0.8112072711207376,"14":-0.07603927392601784,"15":0.3884629748611797,"16":-0.08913227205345291,"17":0.12585868514818996,"18":0.03198973931775975,"19":0.3018154526480745}},{"sx":1,"sy":1,"depth":20,"w":{"0":-0.32310636061146003,"1":-0.08009622442051097,"2":-0.34884158398218973,"3":-0.2621937669441575,"4":-0.22709541044885653,"5":-0.10717250889472503,"6":-0.42117059556903047,"7":-0.4119865452644503,"8":0.2508139490210945,"9":-1.1675704337014174,"10":0.2804356476132969,"11":-0.30844372549009696,"12":-1.0748562294417208,"13":-1.3342981877873288,"14":-0.05684574786955221,"15":-0.9223194736426021,"16":0.46860444470721285,"17":-0.23712581344738437,"18":-0.3758881237620116,"19":0.1530030173618966}},{"sx":1,"sy":1,"depth":20,"w":{"0":-0.3139927727697869,"1":-0.372915136806009,"2":-0.7305212039613248,"3":-0.18117433003140557,"4":-0.39738427244788865,"5":0.27869287581799757,"6":-0.05473678064965025,"7":-0.2025759848006551,"8":-0.1502559303828571,"9":-0.07332521378328608,"10":-0.222558107388194,"11":-0.8005110667414854,"12":-0.4995719520944548,"13":-0.17248910017617472,"14":0.28471628413167466,"15":0.30506709533812093,"16":0.45464908909651475,"17":0.37647820138076327,"18":0.015397697051035787,"19":-0.34547036994866076}}],"biases":{"sx":1,"sy":1,"depth":20,"w":{"0":-0.007222912631149585,"1":-0.31639415046971003,"2":-0.09653181906845497,"3":0.7154014457533099,"4":0.6687951789769997,"5":-0.14688299376482614,"6":-0.04416751075893529,"7":0.1,"8":-0.11944276665652172,"9":-0.07153048213757886,"10":0.06127051754467352,"11":-0.05148573029053147,"12":-0.0650337602971405,"13":-0.12350738277319397,"14":-0.12681684092391887,"15":-0.22976788485270747,"16":-0.06469515676901039,"17":-0.15472215591735705,"18":-0.1629575836792901,"19":-0.4879757315268538}}},{"out_depth":20,"out_sx":1,"out_sy":1,"layer_type":"relu"},{"out_depth":20,"out_sx":1,"out_sy":1,"layer_type":"fc","num_inputs":20,"l1_decay_mul":0,"l2_decay_mul":1,"filters":[{"sx":1,"sy":1,"depth":20,"w":{"0":0.10970085368904314,"1":1.2355318506446207,"2":-0.0995111651062612,"3":0.4119402260643096,"4":-0.4151407189870658,"5":0.036829210398855075,"6":1.296413981676719,"7":-0.08128843317492342,"8":-0.3276831193485807,"9":0.33853962725596487,"10":0.054674106558389585,"11":-0.44213678243722426,"12":0.3427763400714623,"13":-0.5001965226320774,"14":0.002161361066714395,"15":-0.49227216902806614,"16":-0.03118112861298544,"17":-0.5800121672070299,"18":0.24581985539807485,"19":-1.4627142465247536}},{"sx":1,"sy":1,"depth":20,"w":{"0":-0.4787820637214232,"1":-0.8959612913417985,"2":-0.33826611992056066,"3":-0.22737289306923963,"4":-0.6465973353028904,"5":-0.23916464268576157,"6":0.14670251819652155,"7":-0.05723305624050118,"8":-0.09574118216461987,"9":-0.3920391656208056,"10":0.3363010985992537,"11":-0.17698155383185474,"12":-0.10693667577442015,"13":-0.2897284759383248,"14":0.04593353823861118,"15":0.2270500445093585,"16":-0.47432066601586664,"17":0.22758254553199198,"18":-0.507377352952537,"19":-0.06285596375482998}},{"sx":1,"sy":1,"depth":20,"w":{"0":-0.062157952980279124,"1":-0.606098125227933,"2":-0.022577268593294453,"3":-0.09333512253081157,"4":-1.07429954253207,"5":-0.12312396475566714,"6":0.2432991446717784,"7":0.030698332528101113,"8":-0.25740997076782607,"9":0.15095346399255574,"10":0.006884730222018437,"11":0.023666392175391928,"12":0.07533799580268606,"13":-0.3771472170469544,"14":0.15590550201227954,"15":-0.5553858322207174,"16":0.05358870672286689,"17":-0.4274113011327986,"18":0.7891809428971637,"19":-0.1647070130693371}},{"sx":1,"sy":1,"depth":20,"w":{"0":-0.15231069797442026,"1":-0.27908317685564,"2":-0.11187855201171454,"3":-0.3658678446781677,"4":-0.05851134494636377,"5":-0.2613116172949179,"6":0.07256410178260789,"7":0.10538786333418183,"8":-0.1000601176434007,"9":-0.03123527639115142,"10":0.18123674874789555,"11":0.18710418387584635,"12":-0.2355299918555211,"13":0.14308901421946105,"14":0.07290866752842477,"15":-0.19231811222411,"16":0.09176396808919676,"17":-0.2727863015587774,"18":0.0228405826856034,"19":0.009057019496603789}},{"sx":1,"sy":1,"depth":20,"w":{"0":-0.06416619156088497,"1":0.08507094612313847,"2":0.07478268020338749,"3":-0.8501820938569956,"4":-0.13585759157861732,"5":0.08186772130303216,"6":-0.5525327074883905,"7":0.09516556892228964,"8":0.05386241853465985,"9":-0.12749275215370734,"10":-0.10139952137812287,"11":0.5079341249546548,"12":0.46270594841108675,"13":0.835425832997028,"14":0.1732261509536265,"15":0.35310544791195064,"16":-0.061212700532438914,"17":0.413617457803881,"18":-0.05896187299048546,"19":0.03213338142071563}},{"sx":1,"sy":1,"depth":20,"w":{"0":-0.0876112866968617,"1":0.8421161904751774,"2":0.21438902103762708,"3":0.161692609296076,"4":-0.17332629523054396,"5":-0.2147530293007562,"6":0.16900025383734568,"7":0.021958156502919553,"8":-0.3937442037223817,"9":-0.08075690966221759,"10":-0.18856354901908248,"11":-0.31457408412278287,"12":0.049584270357935424,"13":0.11400779959003217,"14":0.07501550049431276,"15":-0.7792566547532829,"16":0.3399147502951927,"17":0.028171565117651107,"18":0.2639176315131057,"19":-0.5018051961783155}},{"sx":1,"sy":1,"depth":20,"w":{"0":-0.14123236985738266,"1":0.13302450851632283,"2":0.2868364541144882,"3":-0.6143513717203518,"4":-0.5381243216724917,"5":0.09183503588325216,"6":0.275234077616088,"7":-0.03508891369836489,"8":0.3774050476431417,"9":0.006049385416758654,"10":-0.30750182180877633,"11":0.2539079492881491,"12":0.060063666282459155,"13":0.6636913809196112,"14":-0.023980581801037678,"15":0.40055482024240663,"16":-0.4405268400813757,"17":0.7615380414946533,"18":0.15859889070339975,"19":-0.04409163136666007}},{"sx":1,"sy":1,"depth":20,"w":{"0":0.04151933904577201,"1":-0.37541339279053004,"2":-0.2639864746187896,"3":-0.004236232541186624,"4":0.0061574248681083976,"5":0.28167158281198856,"6":-0.2545019496442438,"7":-0.42099334115016274,"8":-0.22040002277727963,"9":0.06629039159662545,"10":0.39928160157223835,"11":-0.5224829184448819,"12":-0.09259130206328463,"13":-0.3628746760788215,"14":0.2960049707650362,"15":0.29917527073889116,"16":-0.4798001235764357,"17":0.08868022740593547,"18":-0.27811696632515903,"19":-0.2492032648612366}},{"sx":1,"sy":1,"depth":20,"w":{"0":0.026332007378572605,"1":0.03452272986241164,"2":-0.5092189593866143,"3":-0.4514369730401193,"4":-0.43640181544125206,"5":-0.17593983603162652,"6":-0.25430960261356617,"7":-0.22738862785564543,"8":-0.042326007707999456,"9":-0.15885716380932455,"10":-0.2598185393983587,"11":-0.6947228521084163,"12":-0.009472039475370255,"13":-0.38263644569333755,"14":-0.5091417903778779,"15":0.23606753331408045,"16":0.06542702284417558,"17":-0.31363557134186093,"18":0.3407981534612117,"19":0.050157792214988436}},{"sx":1,"sy":1,"depth":20,"w":{"0":0.0256513342500721,"1":0.0687917156551842,"2":0.41889798802594536,"3":-0.3275681562624578,"4":-0.4193946491446923,"5":-0.006813520966490871,"6":-0.11933254110753246,"7":0.40897684871069273,"8":1.3742608283350908,"9":-0.09833757322744886,"10":-0.25387993505806183,"11":0.3835962970652784,"12":0.163436136438741,"13":0.2696175369178921,"14":-0.3901995288007277,"15":-0.07680001822123188,"16":0.08449776093609024,"17":0.3811578909113962,"18":0.02076068017049743,"19":-0.1325258811535482}},{"sx":1,"sy":1,"depth":20,"w":{"0":-0.0416037770346131,"1":-0.021697479404206556,"2":0.029037996705308204,"3":-0.28393669805957855,"4":-0.2161244769616567,"5":0.16038036008762135,"6":-0.24824802892825676,"7":0.006944399454928587,"8":0.41217545717271925,"9":-0.2928358174530845,"10":0.14114997529916773,"11":0.1777891802807455,"12":0.23713178351182154,"13":0.24462631790915113,"14":-0.06017176248865438,"15":-0.08312113887029711,"16":-0.12072547185127107,"17":0.06567474077121947,"18":-0.38634639513637326,"19":-0.47358076723943365}},{"sx":1,"sy":1,"depth":20,"w":{"0":0.05563420939465175,"1":0.21052753453444048,"2":0.0027952971512189484,"3":-0.37053328309831274,"4":-0.15565366880466658,"5":0.07441681407464357,"6":-0.0487039356392031,"7":-0.2412760860756236,"8":0.2578545004694783,"9":0.15686940502825591,"10":-0.14052951123003052,"11":-0.031777285581539576,"12":-0.15772721446417912,"13":-0.10635470094028482,"14":0.3260745866476735,"15":0.29289817537397916,"16":0.11309787483522422,"17":0.0018390802134316984,"18":-0.23656539575325777,"19":0.009794860725949506}},{"sx":1,"sy":1,"depth":20,"w":{"0":0.20457750572314792,"1":-0.6775579026474559,"2":-0.06585622235220571,"3":-1.3317920052670653,"4":-0.16585847964487915,"5":0.16568103301275022,"6":-0.07370123652353991,"7":-0.12487359738434115,"8":0.44737146233244535,"9":-0.18767663499545703,"10":-0.4860253490922609,"11":0.19138698910222313,"12":0.3296526775045013,"13":-0.026249050175046522,"14":0.005542690653348612,"15":0.1825041090736179,"16":0.21247073905267938,"17":0.04584336158684212,"18":0.18924653538667147,"19":-0.16161306407333015}},{"sx":1,"sy":1,"depth":20,"w":{"0":-0.00552101078537926,"1":-0.2330566916003454,"2":-0.08488698213578261,"3":-1.1193326028544963,"4":-0.4647119298343134,"5":0.28824361798286624,"6":-0.4874055264292632,"7":-0.20770265223932494,"8":0.285124043225972,"9":0.18568060045956575,"10":-0.5210614010066238,"11":0.39913364883030206,"12":-0.011402122201918389,"13":0.2220435441498368,"14":0.31287905956358597,"15":-0.13622543232959497,"16":-0.042093774725448466,"17":0.40560769299056826,"18":-0.05035004481368103,"19":0.03241955341845087}},{"sx":1,"sy":1,"depth":20,"w":{"0":-0.161140947979283,"1":0.6800832466165343,"2":-0.13609878484941704,"3":1.4150215965912338,"4":0.8106428708746156,"5":-0.025978043947644948,"6":-0.4159382488308726,"7":0.13548558900869548,"8":-2.443290535358851,"9":0.23769868434582217,"10":0.45577498868824784,"11":-0.20465049293735885,"12":-0.28801796264816903,"13":-0.32375245970654815,"14":0.1032038446925543,"15":-0.41400597455054655,"16":0.16959367259435223,"17":-0.7535973576923822,"18":0.1895175142149453,"19":-0.6213031367219684}},{"sx":1,"sy":1,"depth":20,"w":{"0":-0.4377440687331922,"1":-0.5146912300659251,"2":0.24447796786622547,"3":0.04770268545720341,"4":-0.6871538162212901,"5":-0.4541807303735619,"6":-0.12241046488022124,"7":0.020469370949317063,"8":-0.15394108003199888,"9":0.08820097118031595,"10":0.3645141248436207,"11":0.29777968737085314,"12":0.02281783494367183,"13":-0.18727640721036184,"14":-0.27428776878007016,"15":-0.35118560995330195,"16":-0.621925435456966,"17":-0.7342945312176181,"18":0.937949808747294,"19":0.251141174844802}},{"sx":1,"sy":1,"depth":20,"w":{"0":0.37082923820061864,"1":-0.6542773588465308,"2":-0.21551284941741614,"3":-0.007317708951787824,"4":-1.1354211905048404,"5":0.18248762495681548,"6":0.22089467889767114,"7":0.3137071875563662,"8":0.11757350221495134,"9":0.0010964096490538012,"10":0.27291611807621685,"11":0.23833520092793317,"12":0.0720412204946765,"13":-0.09817671875807833,"14":0.007378355830821405,"15":-0.2941218351499349,"16":-0.167407508872409,"17":0.7161556154631774,"18":0.4728702679224385,"19":-0.2002143553218099}},{"sx":1,"sy":1,"depth":20,"w":{"0":-0.17204531943635892,"1":-0.08950869035795106,"2":0.03911335503726677,"3":-0.8285665096919141,"4":-1.1402702869555925,"5":-0.11589344973965783,"6":0.021492249280720518,"7":-0.16827684065783602,"8":0.2142820047523567,"9":0.19180924976095406,"10":0.46804449253469255,"11":0.21019058402673876,"12":0.09716066976738956,"13":0.40313125336499717,"14":-0.036309171436774854,"15":-0.2884896124974538,"16":0.2628856519045548,"17":0.1556762396408738,"18":-0.20486142876036925,"19":-0.0796234841231086}},{"sx":1,"sy":1,"depth":20,"w":{"0":0.26450630120489216,"1":-0.723223957840245,"2":0.4058581434364834,"3":-0.27502312030205744,"4":-0.4533239656739465,"5":-0.3492311925480656,"6":-0.7550174128684524,"7":-0.21232058864644582,"8":-0.5399030142853728,"9":-0.022234948966184914,"10":0.08786707680867265,"11":-0.27514361982707225,"12":0.13258618322143026,"13":-0.7278331655832956,"14":0.6414897033756664,"15":-0.1344660604494971,"16":-0.05254928152950588,"17":-0.35296593015505967,"18":-0.36049337328122394,"19":0.09755766960233618}},{"sx":1,"sy":1,"depth":20,"w":{"0":0.3248794235143021,"1":-0.12310616939341273,"2":-0.06621713853093228,"3":-0.36408281297176326,"4":-0.43366981115202774,"5":-0.35425729141891155,"6":-0.27826782601832567,"7":0.06740259750119726,"8":-0.3411658530941421,"9":-0.07936190388380206,"10":0.26770839440114647,"11":-0.2823552388782493,"12":-0.3422213581458644,"13":-0.42174233287452767,"14":-0.4587813157802259,"15":0.12259738564910823,"16":-0.11905480726371222,"17":-0.20895277374280072,"18":-0.017726658370400057,"19":-0.1943149649586248}}],"biases":{"sx":1,"sy":1,"depth":20,"w":{"0":-0.12732581992155806,"1":-0.03262792307684783,"2":-0.19834024057734495,"3":-0.2618349066724674,"4":-0.15089974667865733,"5":-0.3633617741099332,"6":-0.3902219291283056,"7":-0.07178529340974785,"8":-0.0871401792324751,"9":0.20360705834873988,"10":0.0030187691316417692,"11":-0.06420591856117941,"12":-0.3362901762169577,"13":-0.039310973881792506,"14":0.695399248555735,"15":-0.16894870177056692,"16":-0.034410135507766226,"17":-0.2662502736162828,"18":-0.03377639266733199,"19":-0.00028111417454634857}}},{"out_depth":20,"out_sx":1,"out_sy":1,"layer_type":"relu"},{"out_depth":20,"out_sx":1,"out_sy":1,"layer_type":"fc","num_inputs":20,"l1_decay_mul":0,"l2_decay_mul":1,"filters":[{"sx":1,"sy":1,"depth":20,"w":{"0":-0.18458296636712934,"1":-0.6758042280532999,"2":-0.0752384621146815,"3":-0.16879408012393407,"4":0.03568008752510082,"5":0.02295257496153148,"6":-0.06344537412273366,"7":-0.4452169362795641,"8":-0.27151338746331827,"9":0.31537647996910323,"10":-0.018884054709806326,"11":-0.36725666398380663,"12":0.33055196808895254,"13":-0.3913567238096775,"14":-0.7963907288031222,"15":0.3997368502872889,"16":-0.5147285869738237,"17":-0.2990057766577538,"18":-0.6379540427203128,"19":-0.03059505917016906}},{"sx":1,"sy":1,"depth":20,"w":{"0":0.01849495562941108,"1":-0.1862598887592399,"2":-0.6046264630132444,"3":0.1212653795179689,"4":-0.17309535584961055,"5":-0.6009662538549069,"6":-0.16979643234525096,"7":0.18907855898760542,"8":0.30982039779670667,"9":-0.0659593263344276,"10":0.2265830942954883,"11":0.039706678278662845,"12":0.20400472905773603,"13":-0.24874054775527565,"14":-0.11719598098442337,"15":0.02447572568852386,"16":-0.6175853891342968,"17":0.2807907589001026,"18":-0.07188252919641375,"19":-0.4865668337362673}},{"sx":1,"sy":1,"depth":20,"w":{"0":-0.16847874195799295,"1":-0.19434724228581343,"2":0.3421038426523115,"3":-0.14291129184781237,"4":-0.5619910043018786,"5":0.2490244820953889,"6":-0.4932017638000582,"7":0.39854298172850705,"8":0.06442283827719127,"9":1.0166213348840134,"10":0.009603226717634512,"11":-0.28050580336454717,"12":-0.5445687421926878,"13":-0.28489081070579997,"14":1.093841331019281,"15":-0.5796404738813913,"16":-1.0542666690037745,"17":-0.15823757176932363,"18":0.5330401180656866,"19":-0.07307907885133075}},{"sx":1,"sy":1,"depth":20,"w":{"0":-0.08551237180903731,"1":0.20537604370813328,"2":-0.5052954193885183,"3":-0.11492853524027773,"4":0.1617240227989835,"5":-0.277556552858105,"6":0.18279026477081656,"7":0.12010720421920268,"8":0.32860277575463936,"9":0.09860604477762099,"10":-0.3806580224914328,"11":-0.150054505208544,"12":0.6311914838956244,"13":0.12812107588958338,"14":-0.759305155568166,"15":0.320443926074961,"16":-0.48437630624263894,"17":0.13882549027880264,"18":-0.023278126089397607,"19":0.3461647594654721}},{"sx":1,"sy":1,"depth":20,"w":{"0":0.7280183160590524,"1":-0.019884007571197713,"2":-0.741227042054883,"3":0.15866641577541699,"4":-0.453245663281346,"5":0.2567098422367258,"6":-0.924243909457916,"7":0.41290663152839185,"8":-0.03973330703827792,"9":0.22725516362510756,"10":-0.2259970686604706,"11":-0.2462290004417134,"12":-0.46290859575469623,"13":-0.4313518735313395,"14":-0.5476368161138762,"15":-0.8355661012294461,"16":0.6565958862667646,"17":-0.29585379545261364,"18":0.295290621192513,"19":-0.22578293691777412}},{"sx":1,"sy":1,"depth":20,"w":{"0":0.0028287125843795948,"1":0.04212176188228745,"2":0.07112329994049953,"3":-0.277957987705318,"4":-0.2623304214318956,"5":-0.0673356315861348,"6":-0.08430020134327645,"7":0.45272251525320817,"8":-0.3458876847337903,"9":-0.1838383641195329,"10":-0.19990487655353198,"11":0.0040954169651172675,"12":-0.1779638312843188,"13":-0.7805010205775045,"14":-0.16109471278100948,"15":0.28023287113378226,"16":-0.37357426703981617,"17":0.07851326199913687,"18":0.1572006407948209,"19":-0.03450266158200941}},{"sx":1,"sy":1,"depth":20,"w":{"0":-0.39064776878739854,"1":0.5595805271823568,"2":-0.33838761385905824,"3":-0.29463671551718473,"4":0.09321811684002979,"5":-0.04117993592093763,"6":-0.08411859723881847,"7":0.10635133955913584,"8":-0.6927402033537053,"9":-0.163229777005867,"10":0.12376052632182734,"11":-0.2528429729284267,"12":-0.6761301425647158,"13":0.31011632445558385,"14":-0.3021560604637047,"15":0.174806889363915,"16":0.1328408732027809,"17":-0.372521245398329,"18":-0.8682800899357583,"19":-0.5813756571571594}},{"sx":1,"sy":1,"depth":20,"w":{"0":0.0283756509387601,"1":-0.8745757839063087,"2":0.3233462457089692,"3":-0.2623879457539252,"4":0.24753083976399956,"5":-0.13664093061493876,"6":-0.02878856094988525,"7":0.032058637236242186,"8":0.20587753426613972,"9":0.7743633865647072,"10":-0.43181200367872885,"11":0.05543437535852533,"12":-0.08028487272420545,"13":0.36361884602110783,"14":0.8863791793750213,"15":1.165243804035009,"16":-0.18422914886862354,"17":-0.21291929468825765,"18":-1.0017037178883281,"19":0.010858608689102192}},{"sx":1,"sy":1,"depth":20,"w":{"0":-0.19068483692530203,"1":0.08743459782493097,"2":-0.46919359278117106,"3":0.07697811595231421,"4":0.1503336404537876,"5":-0.22531422919708408,"6":-0.45028797540433396,"7":-0.08317999224074629,"8":0.19518914614578448,"9":-0.09342062810431637,"10":0.2730047691583438,"11":0.18380524742459511,"12":0.1533279495772793,"13":0.13384591304385393,"14":-0.22479555489409472,"15":-0.07333620939242895,"16":-0.3198279247706749,"17":0.22781624493389346,"18":-0.07885963092183622,"19":0.18727030860857252}},{"sx":1,"sy":1,"depth":20,"w":{"0":-1.1011181803799301,"1":0.08097884054709335,"2":-0.09386291300822723,"3":-0.19400575078706633,"4":0.09818145053509905,"5":-0.5365494876521939,"6":-0.11453822197364245,"7":-0.4158102496661248,"8":-0.244122038787465,"9":0.4270175616302992,"10":-0.48892165641152074,"11":-0.19724121870145955,"12":-0.42327301504174847,"13":-0.32315621391362037,"14":-0.6808718418347681,"15":-0.285928027722278,"16":0.2621196133045277,"17":-0.23760399270113333,"18":-0.11467914151416825,"19":0.010176927496252566}},{"sx":1,"sy":1,"depth":20,"w":{"0":-0.56085758874552,"1":0.046639664743317766,"2":0.5719815265003312,"3":0.06541363900680752,"4":-0.23910793105556227,"5":0.07949343147235567,"6":-0.6590416823228142,"7":0.08549411140057754,"8":-0.2416233843686317,"9":0.44167318651500614,"10":-0.4506639641259384,"11":-0.23729480729677588,"12":-0.6245428022944718,"13":-0.5720464138573024,"14":0.5816427598444259,"15":-0.472972536395097,"16":-0.3875926738425489,"17":-0.4657914573836173,"18":0.5213096283902813,"19":-0.27897305821641477}},{"sx":1,"sy":1,"depth":20,"w":{"0":-0.8534165831564449,"1":-0.09488698788560766,"2":0.013968213620771313,"3":0.25339197104411837,"4":0.2973681523201362,"5":-0.31992327153770184,"6":-0.005899269052094137,"7":-0.04628179798230396,"8":-0.27601178379472774,"9":0.8150887878238674,"10":0.08257132990932986,"11":0.13466273830768724,"12":0.4111833393345855,"13":0.1305362961471127,"14":0.2117591007545673,"15":-0.14739228657693695,"16":0.3211287872496758,"17":0.20628715236698028,"18":-0.2137961553732083,"19":-0.2692730415933071}},{"sx":1,"sy":1,"depth":20,"w":{"0":-0.3348924630206006,"1":-0.07201959983610513,"2":0.060235426994491394,"3":-0.18252054757225378,"4":-0.32130720039694083,"5":-0.41279513218405495,"6":-0.30546619989788115,"7":0.006155750572903139,"8":-0.21622354187874582,"9":-0.07698131793253907,"10":-0.1639708933918054,"11":0.11436754373538632,"12":-0.0007427757948203296,"13":0.0065323193657010475,"14":-0.050387986338107614,"15":0.22751507089686085,"16":-0.22161183075974752,"17":-0.40048486598007754,"18":-0.1200999100625103,"19":-0.057017066697864015}},{"sx":1,"sy":1,"depth":20,"w":{"0":-0.475734209559578,"1":0.3360923234046753,"2":0.23325633597544104,"3":-0.037326225003386865,"4":-0.5308174564769444,"5":-0.03418201934434995,"6":-0.4844890551991675,"7":0.2994326545429609,"8":-0.3962932606184677,"9":-0.2624395510302441,"10":-0.40278719891392045,"11":0.17764015924365384,"12":-0.47932775427010804,"13":0.03210325017414879,"14":-0.5167488252954855,"15":0.9336581800200372,"16":0.2451592351169816,"17":-0.6989935677341256,"18":0.1771346087608797,"19":0.0406194335542313}},{"sx":1,"sy":1,"depth":20,"w":{"0":0.1833531397000175,"1":-0.28403786673809234,"2":0.017139538810673108,"3":-0.366012614835951,"4":0.4518058447831714,"5":-0.43820769399164033,"6":0.3547939787371166,"7":0.3147615177518264,"8":-0.05601567145957169,"9":0.33698167323489125,"10":-0.3420296499794763,"11":-0.16729652756066707,"12":0.10067899342408845,"13":0.2249740645188151,"14":1.2594596208352027,"15":-0.26049949849510035,"16":-0.12439436447900099,"17":-0.18444603249723893,"18":0.3300550208291168,"19":-0.06776266534506004}},{"sx":1,"sy":1,"depth":20,"w":{"0":-0.028906346648933545,"1":-0.44169710823301084,"2":-0.07402076027997452,"3":-0.1313036430800942,"4":-0.38398204370485106,"5":0.15233312607022928,"6":0.06439693259941928,"7":0.20104439427856988,"8":0.09021091950025166,"9":0.4970549955765667,"10":-0.10812786044956665,"11":-0.45979214252295847,"12":-0.2793634460682169,"13":0.07257409307487069,"14":0.6565615615195456,"15":-0.37945167474512315,"16":-0.9806210341607122,"17":-0.05289232196110357,"18":0.10155363848095376,"19":-0.3190333749699944}},{"sx":1,"sy":1,"depth":20,"w":{"0":-0.5386782773005767,"1":0.06531758581941663,"2":0.24458766875503443,"3":0.1579161885234498,"4":-0.29605016308796955,"5":-0.5568058563008603,"6":-0.16942832486188722,"7":-0.029358596741498204,"8":0.07046288986989688,"9":0.06948883732043723,"10":0.20166322671804998,"11":0.45393350350369505,"12":0.22585210223374086,"13":0.4821738371826113,"14":-0.16910667744900623,"15":-0.04546141634719813,"16":0.42669735897477884,"17":-0.03161603794318378,"18":0.6183916499760319,"19":0.09763658279450523}},{"sx":1,"sy":1,"depth":20,"w":{"0":-0.08453296708970351,"1":-0.32162416430953467,"2":-0.06906559172954352,"3":-0.08452264772955279,"4":-0.18067204059428416,"5":-0.028300761414778535,"6":0.0968619667374982,"7":-0.46013079416245656,"8":0.1280729866631185,"9":-0.09261256551879836,"10":0.3138249360667042,"11":0.15307200826459932,"12":-0.2872532566840626,"13":-0.23407604879434948,"14":-0.9103585234769904,"15":-0.2347044846200701,"16":-0.10645265091936834,"17":-0.5836085844451688,"18":-0.7751635426690194,"19":-0.4794424534489434}},{"sx":1,"sy":1,"depth":20,"w":{"0":-0.7560627363855144,"1":0.2383203818441325,"2":-0.11337446812703793,"3":-0.007608296226535068,"4":0.21632498380328183,"5":-0.7701746748984357,"6":0.1334598394973237,"7":-0.2579690868500532,"8":0.6802934835048339,"9":0.12924682797226325,"10":0.008485687402986284,"11":0.24568645256119975,"12":0.50981556859789,"13":-0.14643367415791625,"14":-0.3579595569880033,"15":0.11360472716364438,"16":-0.7949618294640101,"17":-0.2570693802926322,"18":0.26170408009467006,"19":0.1681694056377378}},{"sx":1,"sy":1,"depth":20,"w":{"0":-0.5406078406403279,"1":-0.11882733460513552,"2":-0.4253026049232189,"3":0.018806458454661612,"4":-0.3522777755002937,"5":-0.6952907601222622,"6":0.3307425041470108,"7":-0.10040137829948746,"8":-0.032247193955015505,"9":0.9012619567669696,"10":0.1486844020372543,"11":0.05605843606661281,"12":-0.24371105917516658,"13":-0.1261712935640186,"14":-0.35972145314464926,"15":-0.2971028976694781,"16":0.5272688258033765,"17":-0.12024683483718235,"18":-0.5796786077231771,"19":-0.20583270022755004}}],"biases":{"sx":1,"sy":1,"depth":20,"w":{"0":-0.4085320495823633,"1":-0.07539831442824786,"2":-0.15088125950706088,"3":-0.16064736997822834,"4":1.1524922029088536,"5":-0.054538946756194195,"6":-0.10437210528017236,"7":-0.3724171006660155,"8":-0.07994867370168444,"9":0.8777040362526277,"10":0.1963449642121874,"11":-0.0968613940840167,"12":-0.005642877492460719,"13":0.2615100236018969,"14":0.019243587247317784,"15":0.49697013321225847,"16":0.02381260378395286,"17":-0.008769350300011282,"18":-0.33640895261690096,"19":0.15232337446470065}}},{"out_depth":20,"out_sx":1,"out_sy":1,"layer_type":"relu"},{"out_depth":20,"out_sx":1,"out_sy":1,"layer_type":"fc","num_inputs":20,"l1_decay_mul":0,"l2_decay_mul":1,"filters":[{"sx":1,"sy":1,"depth":20,"w":{"0":-0.4554224701433797,"1":0.029547432187491954,"2":-0.44219420193392817,"3":-0.14962492038908856,"4":-1.5374704602307594,"5":-0.13219505566657794,"6":-0.20843136219895192,"7":0.37520015023459613,"8":0.08504938801275093,"9":-0.34339857838849297,"10":-0.12576610782409833,"11":0.08730659461246904,"12":-0.00858324492268849,"13":0.5434215309482876,"14":-0.15572031698550243,"15":-0.7642651803070886,"16":-0.5044091928222423,"17":-0.32189429878306697,"18":-0.16087957027650568,"19":0.16200874540175228}},{"sx":1,"sy":1,"depth":20,"w":{"0":0.4146655721781663,"1":-0.1688581608626087,"2":-0.5521718333556175,"3":0.016084083564633464,"4":-0.5681870076885392,"5":-0.2491707711526451,"6":-0.23471513484044665,"7":0.2247356259178916,"8":0.3534829040491722,"9":-0.31678044704708214,"10":-0.2750851761171888,"11":0.032257579636094096,"12":-0.07049990165409464,"13":0.7643224048071838,"14":0.15236463249080978,"15":-0.578820271913813,"16":0.32007658359449676,"17":0.3587530679230274,"18":-0.15886154377709316,"19":-0.31205118170159923}},{"sx":1,"sy":1,"depth":20,"w":{"0":-0.1717460357002772,"1":0.06342927120364308,"2":-0.7489723409129283,"3":-0.056213345296411074,"4":-0.8489338654281742,"5":-0.6854738106979429,"6":-0.08534774267014246,"7":0.417552377452447,"8":-0.35191232252990995,"9":0.10308433106490435,"10":-0.601973644492106,"11":0.47306095354512173,"12":0.024339581116528203,"13":1.5785102269976514,"14":-0.6183834206393897,"15":-0.05911994195204344,"16":-0.2738170068076904,"17":0.048879523127497965,"18":-0.15303639047561526,"19":-0.12260215389347792}},{"sx":1,"sy":1,"depth":20,"w":{"0":-0.02534482652613541,"1":-0.06629511566767543,"2":-0.10337559044403283,"3":-0.33641694273888517,"4":0.18174798313028634,"5":-0.3070181375684843,"6":-0.3642860002248808,"7":-0.3125810564568881,"8":-0.138810723711886,"9":-0.05021404373817293,"10":0.39386281698231884,"11":-0.37769681288408086,"12":-0.6148697507622773,"13":-0.15691989195073336,"14":-0.11590569298427923,"15":-0.3761319509184662,"16":-0.2737722123733189,"17":-0.46940695151416023,"18":-0.011727941732699651,"19":-0.031235488024971052}},{"sx":1,"sy":1,"depth":20,"w":{"0":-0.49868383050359966,"1":-0.06363010365878359,"2":0.18467852038108382,"3":-0.08822708952860536,"4":1.1634032255344344,"5":-0.34346054042546365,"6":0.11374181077571144,"7":-0.3324364875309204,"8":0.20757263726406727,"9":1.759905628319631,"10":0.4698202917938208,"11":-0.7830065055371276,"12":0.16062588372641487,"13":-0.4169672559393227,"14":-0.38617542849681713,"15":0.06649057356368245,"16":-0.17602465604621342,"17":-0.09834387105794315,"18":-0.7733618197423479,"19":0.6392565017362396}},{"sx":1,"sy":1,"depth":20,"w":{"0":-0.11278316086663163,"1":0.11691478233271717,"2":-0.30183392399437486,"3":-0.2439362543909858,"4":0.10014945694155893,"5":-0.0008185754003207223,"6":-0.5165074962599918,"7":-0.26525565754979336,"8":0.34872309286744246,"9":0.03904039819746087,"10":0.08377777550826138,"11":-0.3423084061662663,"12":-0.2279582642071116,"13":-0.3073905180911304,"14":-0.0475245989655222,"15":-0.18238542991709464,"16":-0.3105875227436013,"17":0.017233655898745166,"18":-0.5568429640107947,"19":-0.24373872321934806}},{"sx":1,"sy":1,"depth":20,"w":{"0":-0.33985397710322,"1":-0.3046160381479072,"2":0.460588308991668,"3":-0.41803888180923965,"4":0.1804030443561031,"5":-0.2292527682629509,"6":-0.22647385800442799,"7":0.004702875763008163,"8":0.20429380964163305,"9":-0.14414297886238744,"10":0.9760436637730401,"11":0.14331965616197007,"12":0.31150549814672285,"13":-0.2555492408682822,"14":-0.2775161265139401,"15":-0.14077832180640243,"16":0.672062845778103,"17":-0.1946625876957378,"18":0.025177430562090215,"19":0.6543184506200647}},{"sx":1,"sy":1,"depth":20,"w":{"0":-0.3820851299978162,"1":-0.0643638559110968,"2":-0.44592778943910416,"3":-0.03651648909414433,"4":-0.26504830476127206,"5":-0.3401969577084053,"6":-0.31100409519442584,"7":-0.3404559762883596,"8":0.3108793693491368,"9":-0.3220416101867098,"10":-0.44517058565907286,"11":0.008972943738539164,"12":0.14770891905541558,"13":-0.18367471575521968,"14":-0.11083483122640672,"15":0.2626547855513567,"16":0.3945087833012909,"17":-0.10905420796318177,"18":0.027005864942573263,"19":0.01716439738951775}},{"sx":1,"sy":1,"depth":20,"w":{"0":-0.3679284849492436,"1":-0.3111908668220643,"2":0.23050699817021267,"3":-0.24318389257446585,"4":-0.1471086060302918,"5":-0.1472039364191902,"6":-0.24146488637915167,"7":-0.495880832773128,"8":-0.317966145360452,"9":0.03241853562790965,"10":-0.226593968150496,"11":-0.6374280757426042,"12":-0.3102850438121554,"13":-0.18303573266003717,"14":-0.37362284392363077,"15":0.10368550460890495,"16":0.37375343717798726,"17":0.018939365548276712,"18":-0.3243122693091916,"19":0.37326542643326577}},{"sx":1,"sy":1,"depth":20,"w":{"0":-0.11941962812192773,"1":0.17889311937152488,"2":-0.41706063496078705,"3":-0.090005407079893,"4":-0.5433310240989023,"5":0.1941143608558976,"6":0.1713473208571216,"7":-0.4635052726722792,"8":0.2880995093452904,"9":-0.0628995552566553,"10":0.026799099407836775,"11":-0.0723149998589776,"12":0.27219300615951936,"13":-0.33171635654245013,"14":0.3620663441725338,"15":-0.29096725872079426,"16":0.23597195800040685,"17":-0.11085566435869203,"18":0.03355025559328126,"19":0.13428971223956115}},{"sx":1,"sy":1,"depth":20,"w":{"0":-0.049059635645382495,"1":-0.5345861802648523,"2":0.17187424160623113,"3":-0.0477428672483697,"4":1.9669381283570095,"5":0.19850116988979966,"6":-0.14367256436650652,"7":-0.10695517018534016,"8":-0.34822964910973886,"9":2.106175678125291,"10":-0.5570637147502678,"11":-0.10652887931653103,"12":-0.17098797326595752,"13":-0.3592335643707681,"14":-1.1188620607463755,"15":0.05323395186866429,"16":-0.7275142014022765,"17":0.11789655862063456,"18":-0.472783309943926,"19":0.1272114319061165}},{"sx":1,"sy":1,"depth":20,"w":{"0":0.35503672655898577,"1":0.030626777010900882,"2":-0.4086263382895158,"3":0.029956962512000272,"4":-0.3041528138356324,"5":0.03967848883532781,"6":-0.3756033353300547,"7":-0.330592711566169,"8":0.09859318507997372,"9":-0.13331503345799942,"10":-0.24838362785445312,"11":-0.15500104380203975,"12":0.11024439203070992,"13":-0.228581311985443,"14":0.18748721921814576,"15":-0.0011437399014418614,"16":0.10914856067894506,"17":-0.11378224143233534,"18":0.3444627316782221,"19":-0.06784779624116832}},{"sx":1,"sy":1,"depth":20,"w":{"0":0.45810114847409245,"1":-0.26379186991484604,"2":-0.4809953667666906,"3":0.057842721162045314,"4":-0.023157853682748614,"5":-0.180364982411141,"6":-0.22829349993521386,"7":-0.21748948961010509,"8":-0.12322701204574327,"9":0.14865860173086254,"10":-0.21952606501359465,"11":-0.09496090528631697,"12":0.021599544806920355,"13":-0.22300728865958422,"14":0.07992737820146187,"15":0.3697658878648936,"16":-0.24608175626447518,"17":0.41533000450937096,"18":-0.22788378433277828,"19":-0.004897660450805694}},{"sx":1,"sy":1,"depth":20,"w":{"0":0.13178533227661435,"1":-0.14948072844146582,"2":0.14436993772420584,"3":-0.22773932394598004,"4":-0.48037234841456605,"5":0.02799944654927802,"6":-0.21763830231494657,"7":-0.583142945207737,"8":-0.061580685112511566,"9":0.06499121956385194,"10":-0.2476228840365007,"11":0.06416471783158444,"12":0.11398320197351315,"13":-0.5048376028207417,"14":0.006725508587244746,"15":-0.23655171708613668,"16":-0.4572604473111051,"17":0.1703273562831097,"18":0.1313944464797981,"19":-0.3950849363254687}},{"sx":1,"sy":1,"depth":20,"w":{"0":-0.22007262552991516,"1":-0.2177801373703775,"2":0.011779711480550004,"3":-0.07940746493028433,"4":-0.12790188395881621,"5":-0.2898381278610344,"6":-0.47371234417822317,"7":-0.8053218995193837,"8":0.30094539546542987,"9":-0.243824028172565,"10":-0.24397392906871956,"11":-0.10963699935462226,"12":-0.26876429974236554,"13":0.22802556374731484,"14":-0.04011567965945362,"15":-0.31916160076425676,"16":0.05743090412008236,"17":0.02171627839061165,"18":0.34655248807570216,"19":-0.3871799017497568}},{"sx":1,"sy":1,"depth":20,"w":{"0":-0.5239350244832356,"1":0.017628448449259766,"2":0.6951680461725042,"3":-0.23981332520051765,"4":0.2956867828429058,"5":0.34488440007958493,"6":-0.48374637980313206,"7":-0.5557302379928045,"8":-0.12697712267217512,"9":-0.2110839827680525,"10":0.3830750940390549,"11":-0.7466927116175319,"12":0.40231463534888684,"13":0.19453935233515934,"14":-0.45456438627068413,"15":-0.028784053879956722,"16":0.043648775327160376,"17":-0.29263649590964147,"18":-0.4374143449623179,"19":-0.3915910949673757}},{"sx":1,"sy":1,"depth":20,"w":{"0":-0.07972235959831368,"1":-0.13005601131192635,"2":-0.8019887524267992,"3":0.4948561659879291,"4":1.0349537741688766,"5":-0.11152139998373083,"6":-0.4220187450102852,"7":-0.9187773792172298,"8":0.21974440764089298,"9":0.9666013009733714,"10":-0.33924613683582033,"11":0.06944054043770184,"12":-0.05729686965761866,"13":0.1674753964240261,"14":0.1437600938944996,"15":-0.0727585318783976,"16":-0.46588292269845605,"17":-0.21224232580683874,"18":0.6831650658607973,"19":-0.22656232445519647}},{"sx":1,"sy":1,"depth":20,"w":{"0":-0.21946936757938956,"1":0.10193665694124981,"2":-0.16149827288353588,"3":-0.44668718276979164,"4":-0.31284664441436055,"5":0.28858058093411165,"6":0.20189637705081298,"7":-0.3001302869859746,"8":-0.17383783885723555,"9":0.05746099043687497,"10":0.10796092419275365,"11":-0.0665438691735758,"12":0.17753320463639105,"13":-0.124595425617526,"14":0.2359813041227886,"15":-0.13021456468059608,"16":-0.4200192250526568,"17":-0.06800466145735291,"18":0.3122257269872843,"19":0.4198969930276012}},{"sx":1,"sy":1,"depth":20,"w":{"0":-0.4797388592821977,"1":-0.11514641989712764,"2":-0.04232908627096181,"3":-0.0037309411937489117,"4":-0.8361109551642459,"5":-0.5482358839853029,"6":0.08792184039750357,"7":0.23787336520803934,"8":-0.45458257562068033,"9":-0.41657831943067614,"10":-0.6029505397990185,"11":-0.11376316307186725,"12":-0.24999723267208598,"13":0.2980780463241523,"14":-0.35477046406324664,"15":0.1490758422425318,"16":-0.4166191687275934,"17":-0.11452342262799352,"18":-0.31062122122722197,"19":-0.24989136937816153}},{"sx":1,"sy":1,"depth":20,"w":{"0":0.16294563366778653,"1":-0.01132167172325153,"2":-0.6854064042349527,"3":-0.08884809222664553,"4":0.035921021046626436,"5":-0.2748935630148606,"6":-0.01613627332274508,"7":-0.5898224321678788,"8":0.4921355030449982,"9":-0.0978342916597831,"10":-0.037041207470504996,"11":0.19310523204879465,"12":0.2820398923021312,"13":0.3711008950277159,"14":0.23607108087194112,"15":-0.2437984442769154,"16":0.4459621955316947,"17":-0.02816884901920642,"18":0.0957351559225663,"19":-0.39890591923421287}}],"biases":{"sx":1,"sy":1,"depth":20,"w":{"0":0.244147742658165,"1":0.29238186308799796,"2":0.29229204473459963,"3":-0.6594583152366069,"4":-0.19106728260478167,"5":-0.186348392393886,"6":-0.536167075279955,"7":0.10169776592464641,"8":-0.012249017661777337,"9":0.0009871974304905794,"10":0.3460700906623301,"11":0.002672638257645445,"12":-0.13716042135835965,"13":0.1938760145154796,"14":0.024117030232883255,"15":-0.23472790982746744,"16":0.859443269198897,"17":-0.31624974097408864,"18":0.03475231529928041,"19":-0.22201972323407193}}},{"out_depth":20,"out_sx":1,"out_sy":1,"layer_type":"relu"},{"out_depth":20,"out_sx":1,"out_sy":1,"layer_type":"fc","num_inputs":20,"l1_decay_mul":0,"l2_decay_mul":1,"filters":[{"sx":1,"sy":1,"depth":20,"w":{"0":-0.8840750145514804,"1":-0.33484171299833443,"2":-0.7874011971443873,"3":-0.06790823903375605,"4":-0.3602711588096478,"5":-0.42493311345115614,"6":0.014205056155681283,"7":-0.5794091681356676,"8":-0.32161850653052254,"9":0.05340723696375422,"10":-1.405453748349588,"11":-0.3078683083586492,"12":-0.5762194664608701,"13":-0.08869933592454068,"14":-0.18808464295912558,"15":0.05619399963613448,"16":-0.19301716005350472,"17":0.4667028329324901,"18":0.25336114805670973,"19":-0.10814209140866679}},{"sx":1,"sy":1,"depth":20,"w":{"0":0.16476257497804367,"1":0.6156627728419711,"2":-0.2510158807022702,"3":-0.13095356434775443,"4":-0.8300285559279749,"5":0.08581915006595982,"6":0.04323347110710485,"7":-0.20199849100066938,"8":-0.541842542425979,"9":0.28246397240519827,"10":-0.4947962718887795,"11":-0.011350993514765425,"12":0.1961019258670213,"13":0.07344476524079543,"14":0.15461181810478203,"15":0.1165710298045293,"16":0.0161640969543746,"17":0.24418607363081588,"18":-0.07972604459903151,"19":-0.20030309581270267}},{"sx":1,"sy":1,"depth":20,"w":{"0":0.10553002265874985,"1":-0.37895604239055947,"2":-0.5973315865373847,"3":0.006075284031759109,"4":-0.435106938048019,"5":-0.4529447634414348,"6":-0.38697612039686213,"7":0.39377518421470176,"8":-0.32997825314097595,"9":0.21059422658871435,"10":0.16429904725069341,"11":0.11363350895188933,"12":0.07000496967421865,"13":0.40896422956746364,"14":0.3833877768028364,"15":-0.5595898907930346,"16":0.04083325953123874,"17":-0.007957061940208392,"18":-0.2540279871714598,"19":0.12214552210853923}},{"sx":1,"sy":1,"depth":20,"w":{"0":0.08943701646568726,"1":-0.0868479030184471,"2":-0.30054369915322054,"3":0.21441654472900482,"4":-0.37126025850173056,"5":0.10646982453529551,"6":-0.07850444740880624,"7":0.022048722597416998,"8":-0.1847546026310112,"9":-0.10626884680548593,"10":-0.46531214041153457,"11":-0.0814377519671387,"12":0.21839620515616606,"13":-0.47878294678863564,"14":0.0365147228268555,"15":-0.12035065286751387,"16":-0.4030975776396164,"17":-0.00702436910104701,"18":-0.42822917836907526,"19":0.03848050727190724}},{"sx":1,"sy":1,"depth":20,"w":{"0":-0.35568171270024324,"1":-0.5376957771039217,"2":-0.28378043500815653,"3":-0.9213471647431426,"4":-0.03465972575165283,"5":-0.6421335890998896,"6":-0.24376064601788844,"7":0.20635774416402972,"8":0.14178306116340011,"9":0.041917989254421056,"10":-0.45858187047008825,"11":-0.09720107437742753,"12":0.3066741383973561,"13":-0.19038775112416734,"14":0.24486559834589477,"15":-0.38427592878094774,"16":-0.19162604687385437,"17":0.05169646266335711,"18":0.0720332335246228,"19":0.07369772666976857}},{"sx":1,"sy":1,"depth":20,"w":{"0":0.33386107814894844,"1":0.12027045165388132,"2":0.13919248756318758,"3":-0.8256696201456505,"4":0.1541397317781569,"5":-1.1491490119182706,"6":-0.002429232881901039,"7":0.04775298213864757,"8":-0.38680366515111775,"9":0.3478181479310114,"10":-0.295050272502724,"11":-0.03388773306591308,"12":0.07884062462332901,"13":0.16114042779881171,"14":-0.19398523802307333,"15":-0.9219601172088149,"16":-0.19769851237953964,"17":0.40717088608229673,"18":-0.08477935355942771,"19":-0.25304160714684804}},{"sx":1,"sy":1,"depth":20,"w":{"0":0.33165029793081985,"1":-0.08880913797903973,"2":-0.4280384093525237,"3":0.3391204957199873,"4":0.05538503713169076,"5":-0.13420435449801252,"6":-0.7526847117075605,"7":-0.13134543490630224,"8":-0.08273932853546796,"9":0.06575780753200247,"10":-0.23994367393101818,"11":-0.5214891013231254,"12":0.03025383062924398,"13":0.02953112703448766,"14":-0.3389490177264344,"15":-0.14798309472876037,"16":-0.02817909887461361,"17":0.214790878722225,"18":-0.2950551536922984,"19":-0.17812936086123315}},{"sx":1,"sy":1,"depth":20,"w":{"0":-0.14831715820343885,"1":0.009554683724371833,"2":0.8009668242478435,"3":0.03587920056505751,"4":0.35146487625568723,"5":-0.2251679709391488,"6":-0.724919394251384,"7":-0.1289491230991514,"8":-0.2556316645595468,"9":-0.36480612607759455,"10":0.24520734908071126,"11":-0.3288990920566665,"12":-0.09564411020521893,"13":-0.2248888235316848,"14":-0.15492178779028914,"15":-0.03577564701824616,"16":0.6852051982056045,"17":0.22715027791065245,"18":1.228169349076549,"19":-0.020816743542418487}},{"sx":1,"sy":1,"depth":20,"w":{"0":0.2712802613816061,"1":-0.34955350064515905,"2":-0.09175648580632267,"3":-0.24073014320744526,"4":0.08449463196071248,"5":-0.153565458952098,"6":-2.1658220506893677,"7":0.596263819565845,"8":-0.26641555237919917,"9":0.2653080155850771,"10":0.024981908519114707,"11":0.1908209027824689,"12":-0.18857658575915104,"13":-0.06848758909906379,"14":0.6150022652238775,"15":-0.7672826850290008,"16":0.3584988682292684,"17":0.2093994108701598,"18":0.43143287264953234,"19":0.14550983653047075}},{"sx":1,"sy":1,"depth":20,"w":{"0":-0.2622157849627556,"1":0.1613774075568193,"2":-0.42885082036200955,"3":0.17609282448723865,"4":-0.11310297792051031,"5":-0.35138464237812733,"6":-1.5708070213644283,"7":0.04723993550814246,"8":-0.04902317508220555,"9":0.18503740442164682,"10":-0.14973183181315872,"11":0.07260724445157707,"12":0.007529556757417066,"13":-0.23803750785800898,"14":-0.17787455731517235,"15":0.08045959653855062,"16":0.515966771377798,"17":0.05872202594677621,"18":-0.43184069892901256,"19":0.004191506345577337}},{"sx":1,"sy":1,"depth":20,"w":{"0":0.12713954325612212,"1":0.4448453292394748,"2":0.20195396743810334,"3":-0.7925262654296593,"4":0.05668435218305718,"5":-1.0300233164646233,"6":-0.15307330916745185,"7":0.24629790302537036,"8":-0.29945595433629574,"9":0.26186495052101166,"10":-0.37190556920434437,"11":0.47368497447615127,"12":-0.04198043821972314,"13":-0.011584784246170939,"14":0.07670024816215112,"15":-0.5108231234785829,"16":0.34015447415785427,"17":0.14455159695257885,"18":-0.45959043367827473,"19":0.15257593635643663}},{"sx":1,"sy":1,"depth":20,"w":{"0":-0.21371352354850323,"1":0.037412176110881906,"2":-0.09170890977738104,"3":-0.525084003497053,"4":-0.1875178935001917,"5":-0.019366429859688356,"6":-0.15745829561332106,"7":-0.3214701839461285,"8":-0.39621263549468405,"9":-0.2815666416634344,"10":-0.1787988246789129,"11":-0.053373671582481824,"12":0.10738061090894128,"13":-0.5002802608396484,"14":-0.23510702487003035,"15":0.19392298247114453,"16":-0.14802009324574628,"17":0.06321340734215596,"18":-0.5995660505626121,"19":-0.03232565966046744}},{"sx":1,"sy":1,"depth":20,"w":{"0":-0.1269420869131488,"1":0.3553559804129425,"2":0.1762931761115037,"3":-1.2937949522508791,"4":0.2322285332505869,"5":-0.3209551914472561,"6":0.26244745803602454,"7":0.2717611275653902,"8":-0.010108437602135801,"9":-0.015952174208443456,"10":-0.6975868741224748,"11":-0.21422179394427482,"12":-0.09966143398283192,"13":-0.14974946080884668,"14":-0.18092893854718228,"15":-0.1563040973732299,"16":0.03895588167227603,"17":-0.16954975986709722,"18":-0.21856178923621056,"19":-0.37535159432240617}},{"sx":1,"sy":1,"depth":20,"w":{"0":-0.4100083483104442,"1":0.30727068331603546,"2":-0.48260580827779526,"3":0.3268620417260953,"4":0.1682290892981134,"5":0.12740092241664785,"6":-2.11788383780772,"7":-0.4721467039585932,"8":-0.015499861537273743,"9":0.106615930064025,"10":-0.3408622293534121,"11":-0.4760030765128533,"12":-0.22374365598674326,"13":-0.1289825593720173,"14":-0.36007644781272863,"15":0.5527643174613216,"16":0.27208250463808464,"17":-0.047122260744487034,"18":-0.29914434306044035,"19":0.1282198772109606}},{"sx":1,"sy":1,"depth":20,"w":{"0":0.02565023980291124,"1":-0.033204195641581086,"2":-0.7192374853234742,"3":0.27694743029554225,"4":0.5283842466176177,"5":0.13537077939434283,"6":0.9692869809469378,"7":0.06707414759538625,"8":-0.19256593361107754,"9":0.004292281250523304,"10":0.7876481040225771,"11":-0.568816208027625,"12":0.27096923809884993,"13":-0.13980801098042794,"14":-0.27092804604621196,"15":0.6307324951506658,"16":-1.0296483638639673,"17":-0.5497954171695947,"18":-1.0027197218824666,"19":-0.36679861326485463}},{"sx":1,"sy":1,"depth":20,"w":{"0":0.04543880119328564,"1":-0.05811844020704546,"2":-1.4533717398425388,"3":0.41319779021727565,"4":-0.24574783972001688,"5":-0.1449082040412054,"6":-0.6338948461207511,"7":-0.15370029432858776,"8":0.30503046005145107,"9":0.1155687457660159,"10":-0.010336793129422924,"11":-0.03930050663218562,"12":0.019180366962520713,"13":0.23363045435976623,"14":0.3021586660532154,"15":0.38424218542349564,"16":-0.5736559265781634,"17":-0.02142895533000588,"18":-1.2554196310314552,"19":-0.09160013575192381}},{"sx":1,"sy":1,"depth":20,"w":{"0":-0.10305502915318063,"1":-0.319306173687724,"2":-0.492697188742083,"3":-0.24538725916793652,"4":-0.012188576359584083,"5":-0.17589616901222777,"6":-0.822052964969831,"7":0.1874132262688235,"8":-0.249747393148439,"9":0.37580204693799013,"10":-0.06346422802882605,"11":0.37067489487576405,"12":0.08784234947296578,"13":-0.28800138515314233,"14":0.3346710765286713,"15":-0.5824878397173398,"16":0.13912513828438186,"17":-0.4099364763381127,"18":-0.1304542239891211,"19":0.2030566114446455}},{"sx":1,"sy":1,"depth":20,"w":{"0":0.170276117370041,"1":-0.027105466955139497,"2":-0.23037014123006616,"3":0.08718173118272352,"4":-0.20974274298327916,"5":-0.09442287403553715,"6":-0.3532204702888614,"7":0.22551531562081958,"8":-0.12968297683764776,"9":-0.05371650569695345,"10":-0.006666284471183129,"11":-0.08877682802051486,"12":-0.5976997514159318,"13":-0.03766453838340532,"14":-0.06944311914191599,"15":-0.1189279027335052,"16":-0.0235509270667355,"17":-0.21227051410047873,"18":0.27593981225279685,"19":-0.23334675321535348}},{"sx":1,"sy":1,"depth":20,"w":{"0":1.1649623203042245,"1":0.3428875403343086,"2":0.32193308517890884,"3":-0.5898482814543354,"4":-0.13942108179331417,"5":-0.6771697332640026,"6":-0.5786346529861313,"7":0.21568631093314852,"8":-0.08420706906479454,"9":-0.21892491283665105,"10":-0.22938938896565367,"11":0.8322491821153337,"12":0.5697510882629409,"13":-0.07704148537844326,"14":0.26146093544068555,"15":-1.2460593594592786,"16":0.4450543767230103,"17":-0.2764602491699364,"18":0.0393375153955293,"19":0.297144791645443}},{"sx":1,"sy":1,"depth":20,"w":{"0":-0.5878761030889698,"1":-0.4368894395465027,"2":-0.7322624257413278,"3":-0.22020772988964982,"4":0.03744574540125873,"5":0.031609919486889036,"6":-0.16169413157314286,"7":-0.48626610370275164,"8":-0.19186097055987003,"9":0.18544262880071702,"10":-0.9696614990679246,"11":-0.8387465979128863,"12":-0.24678236173000012,"13":0.27129078680630614,"14":-0.49048958862113273,"15":0.19234503595009356,"16":-0.07594756817764,"17":-0.0036330092102119737,"18":-0.1592433540275945,"19":-0.1322203639169523}}],"biases":{"sx":1,"sy":1,"depth":20,"w":{"0":-0.1851694483712369,"1":-0.3115148114205841,"2":-0.49375891795015164,"3":-0.0028204784090782413,"4":0.3015101073347155,"5":-0.2303966096228838,"6":-0.027433347006639602,"7":-0.3198012858071131,"8":0.045408655068785074,"9":-0.0038754969366743466,"10":-0.361722156791263,"11":-0.01131354608428174,"12":-0.4817551758631783,"13":0.2450540980513616,"14":0.1421483223696304,"15":-0.0010758836657299424,"16":-0.05626624389463812,"17":-0.16979196461903168,"18":-0.10393119497398079,"19":-0.01884565980445995}}},{"out_depth":20,"out_sx":1,"out_sy":1,"layer_type":"relu"},{"out_depth":20,"out_sx":1,"out_sy":1,"layer_type":"fc","num_inputs":20,"l1_decay_mul":0,"l2_decay_mul":1,"filters":[{"sx":1,"sy":1,"depth":20,"w":{"0":-0.11040894945028612,"1":-0.07097126987758708,"2":-0.0905291613846838,"3":-0.2718986020709506,"4":-0.12541694196931177,"5":-0.48827830259204125,"6":0.2154873021279412,"7":-0.23641194594253467,"8":-0.30552032314141175,"9":0.038783248584631926,"10":-0.3545644946140056,"11":0.2090284056509782,"12":0.05981587132386953,"13":-0.26643202277465095,"14":-0.18146935879527304,"15":-0.41950590442898195,"16":-0.2948574455713123,"17":-0.3521639638417438,"18":-0.31708847889634384,"19":-0.032779346598817594}},{"sx":1,"sy":1,"depth":20,"w":{"0":0.051357286229639885,"1":-0.6619275888365003,"2":-1.2813783454245786,"3":-0.007214245661480795,"4":-0.023153966550617883,"5":-0.5708144455237703,"6":-0.09373091680552666,"7":-0.682798770407234,"8":-0.7383458423859147,"9":-0.24898054773394449,"10":-0.9306845711257452,"11":0.010590015362556911,"12":-0.34876048353887723,"13":0.5295681749122035,"14":-0.47801815579630447,"15":-0.057219323715912776,"16":-0.9641683786850092,"17":-0.7137898627099776,"18":-0.3623218772167917,"19":0.8935337756957241}},{"sx":1,"sy":1,"depth":20,"w":{"0":-0.07298395555760442,"1":-0.46914004097196305,"2":-0.3439835607078962,"3":-0.10513219516463357,"4":-0.1269107260251692,"5":-0.2070815188568057,"6":-0.16190875908382354,"7":-0.44090194025595647,"8":0.03883687510799169,"9":-0.023585939284939697,"10":-0.3212342698471721,"11":0.06556676795709404,"12":-0.10101531271572084,"13":-0.4606420671392704,"14":-0.24930432998639787,"15":-0.3024086704165153,"16":-0.32174939902127075,"17":0.1828195764800546,"18":-0.14339493668522804,"19":-0.06791986872218231}},{"sx":1,"sy":1,"depth":20,"w":{"0":0.33262761937139934,"1":0.10792305010485001,"2":-1.069452340781756,"3":-0.13247674801028583,"4":0.07051551847181559,"5":-0.8176665225103785,"6":-0.28951766550964214,"7":-0.15270535069843802,"8":-0.671439257626539,"9":0.130633439157172,"10":-0.605273437589937,"11":0.05219953805122728,"12":-0.09880703451850026,"13":0.22515788164285727,"14":-0.4395464715490901,"15":-0.33732835817316653,"16":-0.5553469648251299,"17":0.1110422079128868,"18":-0.6604911411298903,"19":0.42685595975778545}},{"sx":1,"sy":1,"depth":20,"w":{"0":-0.31499464264280364,"1":0.13986399497610427,"2":-0.18504228177055154,"3":0.33735802641848966,"4":-0.05548034848658363,"5":-0.05896592389532264,"6":-0.11663213716021112,"7":0.08804367437196883,"8":-0.013366492917702331,"9":-0.12259278702880362,"10":0.12569800681862398,"11":-0.1570762894056198,"12":0.2652332496524276,"13":0.2028361145526065,"14":-0.43185424237522396,"15":-0.09807960429017677,"16":-0.13471168449122856,"17":0.40625400670362555,"18":0.28647500400493375,"19":0.1576422261214302}},{"sx":1,"sy":1,"depth":20,"w":{"0":-0.7294677635905102,"1":-0.26795059346825245,"2":0.31884411899188336,"3":0.2646737143834501,"4":0.4161509251227933,"5":0.14776293908927493,"6":0.0009100457125196192,"7":-0.4741408790706647,"8":0.7558239720592347,"9":-0.01974516866380468,"10":0.4638491051859237,"11":0.21620905593458728,"12":0.5384500910015786,"13":-0.40227440243354085,"14":-0.2823859882980883,"15":-0.1142225158208657,"16":0.030228744836107456,"17":-0.14380680145362904,"18":-0.08423926401469706,"19":-1.2283223246251378}},{"sx":1,"sy":1,"depth":20,"w":{"0":-0.7347650925294777,"1":-0.019295171295089508,"2":0.06925892561979924,"3":0.375841371717623,"4":-0.10461586556832467,"5":0.525112538076708,"6":0.05713192240359696,"7":-0.6948958604475322,"8":0.021769768011058573,"9":0.1172877418527595,"10":-0.337082764189036,"11":0.7033255855076369,"12":0.4337896330357899,"13":-0.5312457671106583,"14":-0.4462186031649331,"15":-0.18047115773946695,"16":-0.2141772971044707,"17":0.1095940851122443,"18":-0.07378937758415666,"19":-0.7261635319829354}},{"sx":1,"sy":1,"depth":20,"w":{"0":-0.2056613653120307,"1":-0.3234737367209887,"2":-0.12529584164751612,"3":0.07705845363689934,"4":-0.18961065031711608,"5":-0.18693417301568663,"6":-0.3186414898172993,"7":-0.40974773638069373,"8":0.23639318388853223,"9":0.20229716194693526,"10":0.14512314662625347,"11":0.017002494805263432,"12":0.17010660619817808,"13":-0.6300347264068749,"14":-0.2646347448017784,"15":0.22616073233001294,"16":0.16232096392283604,"17":0.1715590830202237,"18":-0.3751489489211689,"19":0.11755609994402114}},{"sx":1,"sy":1,"depth":20,"w":{"0":0.9529854382086821,"1":0.13203068426954753,"2":-0.10831350262049706,"3":-0.3209585372867522,"4":0.022011485009004784,"5":-0.5918217207630514,"6":-0.27100863734303604,"7":-0.25391399202688697,"8":1.1999791750328825,"9":0.8339564722091227,"10":-0.6977715478362567,"11":0.5264689590898606,"12":0.23427692869816524,"13":1.0909484275268773,"14":-0.5554717098435735,"15":-0.14680936358989582,"16":0.2431163119168252,"17":-0.4335105052929566,"18":-0.19376093340247788,"19":0.1740881582863755}},{"sx":1,"sy":1,"depth":20,"w":{"0":-0.48694004250198863,"1":0.03234722739252607,"2":0.3866239063064882,"3":-0.6278188085843355,"4":-0.0018506628192579528,"5":-0.1883955635149806,"6":0.3309761234768023,"7":-0.013109900866853437,"8":-0.010492359876169562,"9":0.24358076321412464,"10":-0.0735500516522534,"11":0.05206710166627722,"12":-0.5423600604452458,"13":-0.33253677722021313,"14":-1.1004097984080132,"15":0.09989968100748585,"16":-0.2379338054750584,"17":-0.3382171676509492,"18":-0.5000283958762316,"19":-0.2214726933685277}},{"sx":1,"sy":1,"depth":20,"w":{"0":0.6479906947902849,"1":0.06036338947711935,"2":-0.7919072621432867,"3":-0.2345235355854254,"4":0.6216779850319482,"5":-1.0749313475357691,"6":-0.05059329454539379,"7":-0.08715628166776589,"8":-0.9566824906344151,"9":-0.47386055053469867,"10":-0.30737106819803073,"11":-0.06716262075024773,"12":-1.0102943957441552,"13":-0.24654254828287384,"14":-0.2665808267592974,"15":-0.5269661123204546,"16":-0.6488826023189345,"17":0.01847383731887759,"18":-0.2817689089904581,"19":0.468518005305988}},{"sx":1,"sy":1,"depth":20,"w":{"0":0.028209674608346596,"1":-0.02555201212974814,"2":0.13313065147498243,"3":-0.050522746634687435,"4":0.09891292559077758,"5":0.7839798187769933,"6":0.07057195584466383,"7":-1.2079673038300003,"8":-0.16342165154253313,"9":0.11925780953790234,"10":-0.002955371444986317,"11":-0.3101802891978503,"12":-0.29234592644711777,"13":-0.3562382317724038,"14":0.03363338516895471,"15":-0.12398248133527237,"16":-0.452419206040751,"17":0.447544731353162,"18":-0.8476405835311716,"19":-0.38558854508463103}},{"sx":1,"sy":1,"depth":20,"w":{"0":-1.1215096055695164,"1":-0.20175591056013115,"2":0.22382794006004697,"3":-0.2497567199241242,"4":0.07728534688408031,"5":0.0975569266162708,"6":0.10318584121306916,"7":-0.5633210625667561,"8":0.5677175191626601,"9":-0.40082167336655883,"10":0.2938435425231453,"11":0.22751239013455715,"12":0.4029609411973041,"13":-0.394380614764638,"14":-0.2458904076177297,"15":-0.23298504766274572,"16":0.5812654969298003,"17":0.31387893371039904,"18":-0.11920709880593514,"19":-0.6151883795089962}},{"sx":1,"sy":1,"depth":20,"w":{"0":-0.07562900671582186,"1":-0.19226643640289434,"2":-0.05754920476329637,"3":-0.11380660368321165,"4":-0.25626484747791123,"5":0.011626646661810642,"6":-0.10879508859838413,"7":-0.15609416401212747,"8":-0.002276273066654507,"9":0.11568918821013913,"10":-0.18622817439005382,"11":0.2803397050053112,"12":-0.07860852095001895,"13":0.30420440867426024,"14":-0.48427288827784226,"15":0.3522315575656507,"16":0.05659266888618498,"17":0.3868996605853917,"18":-0.4978994248967513,"19":-0.05218737795808718}},{"sx":1,"sy":1,"depth":20,"w":{"0":0.2384392052830294,"1":-0.18762479751061564,"2":-0.6860371236840471,"3":-0.5557971993549755,"4":0.1691914200039026,"5":-1.067832399170188,"6":-0.11265708838320326,"7":-0.4369097883207907,"8":-0.675394529855962,"9":-0.11681147022853476,"10":-0.8394264034631813,"11":-0.016277288333461152,"12":0.32912053584074635,"13":0.029748179257073293,"14":-0.5526645790630168,"15":0.10464875530339729,"16":-0.44137089940242513,"17":0.11633433389377248,"18":-0.8837732029457178,"19":0.4823556930719622}},{"sx":1,"sy":1,"depth":20,"w":{"0":-0.16673055719492982,"1":-0.8946829217144477,"2":-0.07676851703476086,"3":-0.04695753845167872,"4":-0.4035398837366515,"5":-0.9737345547587472,"6":-0.48982343735443556,"7":-0.026929383579884118,"8":-0.2656586914841374,"9":-0.4050267270784944,"10":-0.18351513460893068,"11":0.09410453889677342,"12":0.02642441113601552,"13":-0.7210155401375882,"14":-0.27865102405954195,"15":-0.4033691213982666,"16":-0.08787264966190071,"17":0.09816694900947469,"18":-0.054595176342461915,"19":-0.027610305065330715}},{"sx":1,"sy":1,"depth":20,"w":{"0":0.892261483442846,"1":0.3806428356218905,"2":-0.033726481273942184,"3":0.32456510850825215,"4":0.3286025839045558,"5":0.12486278540647293,"6":-0.37791655113514355,"7":0.15416044950571,"8":0.5660037588113953,"9":0.5068241244202868,"10":-0.037537631293216744,"11":-0.059906372913764785,"12":0.17668975707991674,"13":-0.13388758035278575,"14":-1.3065865645620645,"15":-0.7334002935593266,"16":-0.3745728364092017,"17":0.30259904953621203,"18":0.29934137301990627,"19":-0.14792376990971173}},{"sx":1,"sy":1,"depth":20,"w":{"0":0.18244682397380557,"1":0.5270315289508394,"2":-0.33196566450814863,"3":0.2315976793174591,"4":0.024107102446368274,"5":0.056258229883188036,"6":-0.4616417499958159,"7":-1.0036314924241287,"8":0.01453466037166656,"9":-0.02207572531340134,"10":-0.46493779498371646,"11":0.46478072085419014,"12":-0.3790499772493451,"13":-0.28494392564568016,"14":-0.2165177732320727,"15":0.18627777329869344,"16":-0.17332708749013204,"17":0.35232599461612274,"18":-0.12945709922354887,"19":-0.49696734585073893}},{"sx":1,"sy":1,"depth":20,"w":{"0":-0.7731017375101367,"1":-0.5207159955274868,"2":0.2055639691460435,"3":0.1037114038597364,"4":-0.051480599461408316,"5":0.28470693901573296,"6":-0.4417987024776522,"7":-0.3266980698779253,"8":-0.2326649002239176,"9":0.04063754616132017,"10":-0.06536146868817715,"11":0.24997310329358785,"12":0.24565689802192678,"13":-0.5496056669386239,"14":-0.372735866658291,"15":-0.19470250853221222,"16":-0.27837445690487755,"17":-0.26646890762942516,"18":-0.12406166924317574,"19":-0.17748444627316293}},{"sx":1,"sy":1,"depth":20,"w":{"0":-0.30192237580421327,"1":-0.46722788360338946,"2":-0.06853691636409687,"3":-0.12897863982471094,"4":-0.40763519363848316,"5":-0.3351808255607187,"6":-0.22798089431750776,"7":-0.12724727799161203,"8":-0.2578001612596899,"9":0.09030382073922195,"10":-0.12291201303597785,"11":-0.3091456819280724,"12":-0.12902178133563041,"13":-0.3961680622897427,"14":-0.37666770260607196,"15":-0.24927104190825322,"16":0.007347293918659332,"17":0.24660170654450914,"18":-0.05256896837236407,"19":0.002715282677943196}}],"biases":{"sx":1,"sy":1,"depth":20,"w":{"0":0.045255503494959354,"1":-0.09311041985616682,"2":0.044999004043553725,"3":-0.1195350212369155,"4":-0.23530064255576016,"5":-0.3196737471700432,"6":-0.009930705936537852,"7":-0.17908880175033073,"8":-0.10827933640422835,"9":-0.07608345221292498,"10":0.3287365761212606,"11":-0.2133543363661053,"12":-0.06220079803872734,"13":-0.0010187085439033279,"14":-0.17196440983410263,"15":0.15628426137225576,"16":0.5381685403107482,"17":-0.018719178237026603,"18":-0.051308519339966094,"19":0.04327508722173424}}},{"out_depth":20,"out_sx":1,"out_sy":1,"layer_type":"relu"},{"out_depth":3,"out_sx":1,"out_sy":1,"layer_type":"fc","num_inputs":20,"l1_decay_mul":0,"l2_decay_mul":1,"filters":[{"sx":1,"sy":1,"depth":20,"w":{"0":-0.22792286937663114,"1":0.0006895877019907285,"2":0.10785729341529667,"3":0.19769934812381307,"4":0.06660265186931455,"5":0.10641397183120198,"6":-0.013824658197348138,"7":-0.2966080585642486,"8":0.00017942853944181146,"9":-0.0032092550540204615,"10":0.002760001259760279,"11":3.8872018867521056e-17,"12":-0.02255261126416795,"13":0.0233005186909889,"14":-0.1830875941422921,"15":-0.010842606146803145,"16":-0.0006300354752786901,"17":0.0064874265736829355,"18":-0.0988847207318159,"19":-0.010192067927480314}},{"sx":1,"sy":1,"depth":20,"w":{"0":-0.4146000899404479,"1":-1.0900406532596214,"2":0.16141980367061778,"3":-0.9068718858292065,"4":0.31042466332462243,"5":0.8473569490387571,"6":0.79777628742304,"7":0.11458548967138855,"8":1.5132046255250606,"9":0.9395902445933264,"10":-1.665357309215004,"11":1.1717381087784884,"12":0.4134576798131047,"13":0.6529374471199956,"14":-0.5061012951750907,"15":-1.8839007926616451,"16":1.2400186775694686,"17":1.220591550444988,"18":0.6941775386859363,"19":0.09376205775248053}},{"sx":1,"sy":1,"depth":20,"w":{"0":-0.04031333082851071,"1":-1.0921658421356084,"2":-0.3688064965273255,"3":-0.35690442262842553,"4":-0.03954671468063725,"5":0.7461431014927461,"6":0.8689189224763261,"7":0.3329082079475639,"8":1.513244729067562,"9":0.9638716602255494,"10":-1.6653577054497137,"11":1.1717515294255623,"12":0.4438333700728879,"13":0.6728572461548451,"14":-0.5908567329917106,"15":-1.914856775657508,"16":1.2400044083738386,"17":1.2030265309426929,"18":0.41301860500281007,"19":0.196321388284115}}],"biases":{"sx":1,"sy":1,"depth":3,"w":{"0":1,"1":0.6059628655734556,"2":0.6059628655734556}}},{"out_depth":3,"out_sx":1,"out_sy":1,"layer_type":"regression","num_inputs":3}]}